<?xml version="1.0" encoding="utf-8"?>
<Root>
  <ActivationFunctions>
    <Fn id="0" name="SteepenedSigmoid" prob="1" />
  </ActivationFunctions>
  <Networks>
    <Network id="799" birthGen="0" fitness="51442">
      <Nodes>
        <Node type="bias" id="0" />
        <Node type="in" id="1" />
        <Node type="in" id="2" />
        <Node type="in" id="3" />
        <Node type="in" id="4" />
        <Node type="in" id="5" />
        <Node type="in" id="6" />
        <Node type="in" id="7" />
        <Node type="in" id="8" />
        <Node type="in" id="9" />
        <Node type="in" id="10" />
        <Node type="in" id="11" />
        <Node type="in" id="12" />
        <Node type="out" id="13" />
        <Node type="out" id="14" />
        <Node type="out" id="15" />
        <Node type="out" id="16" />
        <Node type="out" id="17" />
        <Node type="out" id="18" />
        <Node type="out" id="19" />
        <Node type="hid" id="129" />
      </Nodes>
      <Connections>
        <Con id="64" src="6" tgt="15" wght="-4.7619761084173833" />
        <Con id="69" src="7" tgt="13" wght="4.2560106795969972" />
        <Con id="98" src="11" tgt="14" wght="1.4839623224750227" />
        <Con id="107" src="12" tgt="16" wght="-4.1510990755924242" />
        <Con id="109" src="12" tgt="18" wght="4.3395093186281146" />
        <Con id="130" src="12" tgt="129" wght="3.8730941814689217" />
        <Con id="131" src="129" tgt="14" wght="5" />
        <Con id="135" src="12" tgt="17" wght="-2.2287158574908972" />
        <Con id="137" src="4" tgt="17" wght="0.56056133005768061" />
        <Con id="145" src="10" tgt="13" wght="2.8889399953186512" />
        <Con id="146" src="5" tgt="13" wght="-2.7543418621644378" />
      </Connections>
    </Network>
  </Networks>
</Root>